<?xml version="1.0" encoding="UTF-8"?>
<BIF VERSION="0.3"  xmlns="http://www.cs.ubc.ca/labs/lci/fopi/ve/XMLBIFv0_3"
	xmlns:xsi="http://www.w3.org/2001/XMLSchema-instance"
	xsi:schemaLocation="http://www.cs.ubc.ca/labs/lci/fopi/ve/XMLBIFv0_3 http://www.cs.ubc.ca/labs/lci/fopi/ve/XMLBIFv0_3/XMLBIFv0_3.xsd">
<NETWORK>
<NAME>Untitled</NAME>
<PROPERTY>detailed = </PROPERTY>
<PROPERTY>short = </PROPERTY>

<VARIABLE TYPE="nature">
	<NAME>Annual Income</NAME>
	<OUTCOME>Low</OUTCOME>
	<OUTCOME>High</OUTCOME>
	<PROPERTY>position = (7110.90478515625, 5353.98876953125)</PROPERTY>
</VARIABLE>

<VARIABLE TYPE="nature">
	<NAME>Credit Types</NAME>
	<OUTCOME>0</OUTCOME>
	<OUTCOME>1+</OUTCOME>
	<PROPERTY>position = (7136.70263671875, 5221.31494140625)</PROPERTY>
</VARIABLE>

<VARIABLE TYPE="nature">
	<NAME>Payment History</NAME>
	<OUTCOME>Bad</OUTCOME>
	<OUTCOME>Good</OUTCOME>
	<PROPERTY>position = (7164.95703125, 5130.40869140625)</PROPERTY>
</VARIABLE>

<VARIABLE TYPE="nature">
	<NAME>Existing Debt</NAME>
	<OUTCOME>Little</OUTCOME>
	<OUTCOME>Excessive</OUTCOME>
	<PROPERTY>position = (7414.3359375, 5065.2998046875)</PROPERTY>
</VARIABLE>

<VARIABLE TYPE="nature">
	<NAME>Past Credti Applications</NAME>
	<OUTCOME>0</OUTCOME>
	<OUTCOME>1+</OUTCOME>
	<PROPERTY>position = (7459.7880859375, 5182.00390625)</PROPERTY>
</VARIABLE>

<VARIABLE TYPE="nature">
	<NAME>Credit History</NAME>
	<OUTCOME>Short</OUTCOME>
	<OUTCOME>Long</OUTCOME>
	<PROPERTY>position = (7255.86376953125, 5046.87255859375)</PROPERTY>
</VARIABLE>

<VARIABLE TYPE="nature">
	<NAME>Saving Account?</NAME>
	<OUTCOME>T</OUTCOME>
	<OUTCOME>F</OUTCOME>
	<PROPERTY>position = (7870.095703125, 5202.8876953125)</PROPERTY>
</VARIABLE>

<VARIABLE TYPE="nature">
	<NAME>Assets</NAME>
	<OUTCOME>Few</OUTCOME>
	<OUTCOME>Many</OUTCOME>
	<PROPERTY>position = (7662.4853515625, 5272.91015625)</PROPERTY>
</VARIABLE>

<VARIABLE TYPE="nature">
	<NAME>Loan Decision</NAME>
	<OUTCOME>Approved</OUTCOME>
	<OUTCOME>Rejected</OUTCOME>
	<PROPERTY>position = (7510.15625, 5403.12744140625)</PROPERTY>
</VARIABLE>

<VARIABLE TYPE="nature">
	<NAME>Credit Score</NAME>
	<OUTCOME>Good</OUTCOME>
	<OUTCOME>Bad</OUTCOME>
	<PROPERTY>position = (7313.60107421875, 5264.31103515625)</PROPERTY>
</VARIABLE>

<VARIABLE TYPE="nature">
	<NAME>Houses Owned</NAME>
	<OUTCOME>0</OUTCOME>
	<OUTCOME>1+</OUTCOME>
	<PROPERTY>position = (7682.140625, 5132.865234375)</PROPERTY>
</VARIABLE>

<DEFINITION>
	<FOR>Annual Income</FOR>
	<TABLE>0.5 0.5</TABLE>
</DEFINITION>

<DEFINITION>
	<FOR>Credit Types</FOR>
	<TABLE>0.5 0.5</TABLE>
</DEFINITION>

<DEFINITION>
	<FOR>Payment History</FOR>
	<TABLE>0.5 0.5</TABLE>
</DEFINITION>

<DEFINITION>
	<FOR>Existing Debt</FOR>
	<TABLE>0.5 0.5</TABLE>
</DEFINITION>

<DEFINITION>
	<FOR>Past Credti Applications</FOR>
	<TABLE>0.5 0.5</TABLE>
</DEFINITION>

<DEFINITION>
	<FOR>Credit History</FOR>
	<TABLE>0.5 0.5</TABLE>
</DEFINITION>

<DEFINITION>
	<FOR>Saving Account?</FOR>
	<TABLE>0.5 0.5</TABLE>
</DEFINITION>

<DEFINITION>
	<FOR>Assets</FOR>
	<GIVEN>Saving Account?</GIVEN>
	<GIVEN>Houses Owned</GIVEN>
	<TABLE>0.5 0.5 0.5 0.5 0.5 0.5 0.5 0.5</TABLE>
</DEFINITION>

<DEFINITION>
	<FOR>Loan Decision</FOR>
	<GIVEN>Annual Income</GIVEN>
	<GIVEN>Assets</GIVEN>
	<GIVEN>Credit Score</GIVEN>
	<TABLE>0.5 0.5 0.1 0.9 0.5 0.5 0.5 0.5 0.5 0.5 0.5 0.5 0.95 0.05 0.5 0.5</TABLE>
</DEFINITION>

<DEFINITION>
	<FOR>Credit Score</FOR>
	<GIVEN>Credit Types</GIVEN>
	<GIVEN>Payment History</GIVEN>
	<GIVEN>Existing Debt</GIVEN>
	<GIVEN>Past Credti Applications</GIVEN>
	<GIVEN>Credit History</GIVEN>
	<TABLE>0.4999 0.5001 0.4999 0.5001 0.4999 0.5001 0.4999 0.5001 0.4999 0.5001 0.4999 0.5001 0.4999 0.5001 0.4999 0.5001 0.4999 0.5001 0.4999 0.5001 0.4999 0.5001 0.4999 0.5001 0.4999 0.5001 0.4999 0.5001 0.4999 0.5001 0.4999 0.5001 0.4999 0.5001 0.4999 0.5001 0.4999 0.5001 0.4999 0.5001 0.4999 0.5001 0.4999 0.5001 0.4999 0.5001 0.4999 0.5001 0.4999 0.5001 0.4999 0.5001 0.4999 0.5001 0.4999 0.5001 0.4999 0.5001 0.4999 0.5001 0.4999 0.5001 0.4999 0.5001</TABLE>
</DEFINITION>

<DEFINITION>
	<FOR>Houses Owned</FOR>
	<TABLE>0.5 0.5</TABLE>
</DEFINITION>
</NETWORK>
</BIF>
